<?xml version="1.0"?>
<opencv_storage>
<cascade>
  <stageType>BOOST</stageType>
  <featureType>HAAR</featureType>
  <height>32</height>
  <width>32</width>
  <stageParams>
    <boostType>GAB</boostType>
    <minHitRate>9.9500000476837158e-01</minHitRate>
    <maxFalseAlarm>5.0000000000000000e-01</maxFalseAlarm>
    <weightTrimRate>9.4999998807907104e-01</weightTrimRate>
    <maxDepth>1</maxDepth>
    <maxWeakCount>100</maxWeakCount></stageParams>
  <featureParams>
    <maxCatCount>0</maxCatCount>
    <featSize>1</featSize>
    <mode>BASIC</mode></featureParams>
  <stageNum>4</stageNum>
  <stages>
    <!-- stage 0 -->
    <_>
      <maxWeakCount>2</maxWeakCount>
      <stageThreshold>-1.0735468566417694e-01</stageThreshold>
      <weakClassifiers>
        <_>
          <internalNodes>
            0 -1 1 1.3751171529293060e-02</internalNodes>
          <leafValues>
            -9.8673301935195923e-01 9.6363633871078491e-01</leafValues></_>
        <_>
          <internalNodes>
            0 -1 3 1.0733762755990028e-02</internalNodes>
          <leafValues>
            -9.7977441549301147e-01 8.7937831878662109e-01</leafValues></_></weakClassifiers></_>
    <!-- stage 1 -->
    <_>
      <maxWeakCount>2</maxWeakCount>
      <stageThreshold>-1.2966516613960266e-01</stageThreshold>
      <weakClassifiers>
        <_>
          <internalNodes>
            0 -1 5 -1.5046741813421249e-02</internalNodes>
          <leafValues>
            8.9655172824859619e-01 -9.9000000953674316e-01</leafValues></_>
        <_>
          <internalNodes>
            0 -1 0 -7.3160929605364799e-03</internalNodes>
          <leafValues>
            8.6033481359481812e-01 -9.9283534288406372e-01</leafValues></_></weakClassifiers></_>
    <!-- stage 2 -->
    <_>
      <maxWeakCount>1</maxWeakCount>
      <stageThreshold>8.4126985073089600e-01</stageThreshold>
      <weakClassifiers>
        <_>
          <internalNodes>
            0 -1 2 -1.0218553245067596e-01</internalNodes>
          <leafValues>
            8.4126985073089600e-01 -1.</leafValues></_></weakClassifiers></_>
    <!-- stage 3 -->
    <_>
      <maxWeakCount>2</maxWeakCount>
      <stageThreshold>-2.1789893507957458e-01</stageThreshold>
      <weakClassifiers>
        <_>
          <internalNodes>
            0 -1 4 -1.5858991071581841e-02</internalNodes>
          <leafValues>
            8.9285713434219360e-01 -9.8338872194290161e-01</leafValues></_>
        <_>
          <internalNodes>
            0 -1 6 1.5851750969886780e-02</internalNodes>
          <leafValues>
            -9.6448677778244019e-01 7.6548975706100464e-01</leafValues></_></weakClassifiers></_></stages>
  <features>
    <_>
      <rects>
        <_>
          6 10 4 6 -1.</_>
        <_>
          8 10 2 6 2.</_></rects>
      <tilted>0</tilted></_>
    <_>
      <rects>
        <_>
          9 11 6 6 -1.</_>
        <_>
          11 11 2 6 3.</_></rects>
      <tilted>0</tilted></_>
    <_>
      <rects>
        <_>
          12 1 10 15 -1.</_>
        <_>
          12 6 10 5 3.</_></rects>
      <tilted>0</tilted></_>
    <_>
      <rects>
        <_>
          13 1 9 3 -1.</_>
        <_>
          13 2 9 1 3.</_></rects>
      <tilted>0</tilted></_>
    <_>
      <rects>
        <_>
          15 15 6 4 -1.</_>
        <_>
          17 15 2 4 3.</_></rects>
      <tilted>0</tilted></_>
    <_>
      <rects>
        <_>
          19 5 6 13 -1.</_>
        <_>
          21 5 2 13 3.</_></rects>
      <tilted>0</tilted></_>
    <_>
      <rects>
        <_>
          22 19 6 8 -1.</_>
        <_>
          22 19 3 4 2.</_>
        <_>
          25 23 3 4 2.</_></rects>
      <tilted>0</tilted></_></features></cascade>
</opencv_storage>
