<?xml version="1.0"?>
<opencv_storage>
<cascade>
  <stageType>BOOST</stageType>
  <featureType>HAAR</featureType>
  <height>32</height>
  <width>32</width>
  <stageParams>
    <boostType>GAB</boostType>
    <minHitRate>9.9500000476837158e-01</minHitRate>
    <maxFalseAlarm>5.0000000000000000e-01</maxFalseAlarm>
    <weightTrimRate>9.4999998807907104e-01</weightTrimRate>
    <maxDepth>1</maxDepth>
    <maxWeakCount>100</maxWeakCount></stageParams>
  <featureParams>
    <maxCatCount>0</maxCatCount>
    <featSize>1</featSize>
    <mode>BASIC</mode></featureParams>
  <stageNum>14</stageNum>
  <stages>
    <!-- stage 0 -->
    <_>
      <maxWeakCount>2</maxWeakCount>
      <stageThreshold>-2.7882811427116394e-01</stageThreshold>
      <weakClassifiers>
        <_>
          <internalNodes>
            0 -1 14 1.6232359409332275e-01</internalNodes>
          <leafValues>
            -9.9419450759887695e-01 8.7192118167877197e-01</leafValues></_>
        <_>
          <internalNodes>
            0 -1 53 -9.7443625330924988e-02</internalNodes>
          <leafValues>
            7.1536636352539063e-01 -9.8169630765914917e-01</leafValues></_></weakClassifiers></_>
    <!-- stage 1 -->
    <_>
      <maxWeakCount>3</maxWeakCount>
      <stageThreshold>-1.4316025972366333e+00</stageThreshold>
      <weakClassifiers>
        <_>
          <internalNodes>
            0 -1 25 2.6301616430282593e-01</internalNodes>
          <leafValues>
            -9.5252227783203125e-01 6.1467891931533813e-01</leafValues></_>
        <_>
          <internalNodes>
            0 -1 21 2.9564633965492249e-02</internalNodes>
          <leafValues>
            -9.0991145372390747e-01 5.0433486700057983e-01</leafValues></_>
        <_>
          <internalNodes>
            0 -1 0 3.3209699392318726e-01</internalNodes>
          <leafValues>
            -9.9538618326187134e-01 4.3083116412162781e-01</leafValues></_></weakClassifiers></_>
    <!-- stage 2 -->
    <_>
      <maxWeakCount>2</maxWeakCount>
      <stageThreshold>-4.3334266543388367e-01</stageThreshold>
      <weakClassifiers>
        <_>
          <internalNodes>
            0 -1 22 2.7339018881320953e-02</internalNodes>
          <leafValues>
            -9.4893616437911987e-01 8.6096256971359253e-01</leafValues></_>
        <_>
          <internalNodes>
            0 -1 18 9.5446296036243439e-02</internalNodes>
          <leafValues>
            -1. 5.1559346914291382e-01</leafValues></_></weakClassifiers></_>
    <!-- stage 3 -->
    <_>
      <maxWeakCount>2</maxWeakCount>
      <stageThreshold>-5.8207744359970093e-01</stageThreshold>
      <weakClassifiers>
        <_>
          <internalNodes>
            0 -1 10 4.7104634344577789e-02</internalNodes>
          <leafValues>
            -8.7222224473953247e-01 6.9767439365386963e-01</leafValues></_>
        <_>
          <internalNodes>
            0 -1 5 6.4829322509467602e-03</internalNodes>
          <leafValues>
            2.9014477133750916e-01 -9.9574983119964600e-01</leafValues></_></weakClassifiers></_>
    <!-- stage 4 -->
    <_>
      <maxWeakCount>3</maxWeakCount>
      <stageThreshold>-1.2871280908584595e+00</stageThreshold>
      <weakClassifiers>
        <_>
          <internalNodes>
            0 -1 52 6.5213873982429504e-02</internalNodes>
          <leafValues>
            -8.4275859594345093e-01 6.1676645278930664e-01</leafValues></_>
        <_>
          <internalNodes>
            0 -1 2 4.6226650476455688e-02</internalNodes>
          <leafValues>
            -7.7074563503265381e-01 4.0635386109352112e-01</leafValues></_>
        <_>
          <internalNodes>
            0 -1 11 2.1015694737434387e-01</internalNodes>
          <leafValues>
            -8.5072326660156250e-01 4.2835921049118042e-01</leafValues></_></weakClassifiers></_>
    <!-- stage 5 -->
    <_>
      <maxWeakCount>5</maxWeakCount>
      <stageThreshold>-1.6347603797912598e+00</stageThreshold>
      <weakClassifiers>
        <_>
          <internalNodes>
            0 -1 9 3.5772904753684998e-02</internalNodes>
          <leafValues>
            -8.0386739969253540e-01 4.4047617912292480e-01</leafValues></_>
        <_>
          <internalNodes>
            0 -1 59 7.1313930675387383e-04</internalNodes>
          <leafValues>
            -8.6475127935409546e-01 3.1323328614234924e-01</leafValues></_>
        <_>
          <internalNodes>
            0 -1 34 1.3378165662288666e-02</internalNodes>
          <leafValues>
            -8.8503116369247437e-01 3.6009326577186584e-01</leafValues></_>
        <_>
          <internalNodes>
            0 -1 24 3.5000303387641907e-01</internalNodes>
          <leafValues>
            -6.7077207565307617e-01 5.5645108222961426e-01</leafValues></_>
        <_>
          <internalNodes>
            0 -1 44 -6.8134265020489693e-03</internalNodes>
          <leafValues>
            4.7598752379417419e-01 -8.3344745635986328e-01</leafValues></_></weakClassifiers></_>
    <!-- stage 6 -->
    <_>
      <maxWeakCount>4</maxWeakCount>
      <stageThreshold>-1.1679462194442749e+00</stageThreshold>
      <weakClassifiers>
        <_>
          <internalNodes>
            0 -1 27 -1.2895848602056503e-02</internalNodes>
          <leafValues>
            3.1400966644287109e-01 -8.3649635314941406e-01</leafValues></_>
        <_>
          <internalNodes>
            0 -1 36 -2.1337476937333122e-05</internalNodes>
          <leafValues>
            -8.8633626699447632e-01 2.9705563187599182e-01</leafValues></_>
        <_>
          <internalNodes>
            0 -1 58 -1.1346954852342606e-03</internalNodes>
          <leafValues>
            3.3414548635482788e-01 -8.8155281543731689e-01</leafValues></_>
        <_>
          <internalNodes>
            0 -1 6 -5.3941720398142934e-04</internalNodes>
          <leafValues>
            -9.1348052024841309e-01 2.5304725766181946e-01</leafValues></_></weakClassifiers></_>
    <!-- stage 7 -->
    <_>
      <maxWeakCount>6</maxWeakCount>
      <stageThreshold>-1.4088808298110962e+00</stageThreshold>
      <weakClassifiers>
        <_>
          <internalNodes>
            0 -1 45 6.1015025712549686e-03</internalNodes>
          <leafValues>
            -7.4293059110641479e-01 6.1403506994247437e-01</leafValues></_>
        <_>
          <internalNodes>
            0 -1 17 4.1068243980407715e-01</internalNodes>
          <leafValues>
            -7.8449243307113647e-01 3.0345526337623596e-01</leafValues></_>
        <_>
          <internalNodes>
            0 -1 39 -7.9236663877964020e-03</internalNodes>
          <leafValues>
            3.1134194135665894e-01 -8.7260079383850098e-01</leafValues></_>
        <_>
          <internalNodes>
            0 -1 1 -1.7583251465111971e-03</internalNodes>
          <leafValues>
            -8.7603574991226196e-01 2.7908545732498169e-01</leafValues></_>
        <_>
          <internalNodes>
            0 -1 46 -2.4006883613765240e-03</internalNodes>
          <leafValues>
            2.7059590816497803e-01 -8.0495899915695190e-01</leafValues></_>
        <_>
          <internalNodes>
            0 -1 30 1.1574202217161655e-03</internalNodes>
          <leafValues>
            -6.1450511217117310e-01 4.4146168231964111e-01</leafValues></_></weakClassifiers></_>
    <!-- stage 8 -->
    <_>
      <maxWeakCount>6</maxWeakCount>
      <stageThreshold>-1.7379194498062134e+00</stageThreshold>
      <weakClassifiers>
        <_>
          <internalNodes>
            0 -1 41 8.9682638645172119e-03</internalNodes>
          <leafValues>
            -7.8453040122985840e-01 3.5714286565780640e-01</leafValues></_>
        <_>
          <internalNodes>
            0 -1 3 -7.2846584953367710e-03</internalNodes>
          <leafValues>
            2.1789784729480743e-01 -8.5376989841461182e-01</leafValues></_>
        <_>
          <internalNodes>
            0 -1 35 -3.3891905331984162e-04</internalNodes>
          <leafValues>
            -8.8686257600784302e-01 2.4315761029720306e-01</leafValues></_>
        <_>
          <internalNodes>
            0 -1 29 3.0843806453049183e-03</internalNodes>
          <leafValues>
            -8.5405135154724121e-01 2.7249830961227417e-01</leafValues></_>
        <_>
          <internalNodes>
            0 -1 8 2.1228926198091358e-04</internalNodes>
          <leafValues>
            -8.3586317300796509e-01 2.5835391879081726e-01</leafValues></_>
        <_>
          <internalNodes>
            0 -1 33 1.9627224653959274e-02</internalNodes>
          <leafValues>
            -8.2691490650177002e-01 2.7894049882888794e-01</leafValues></_></weakClassifiers></_>
    <!-- stage 9 -->
    <_>
      <maxWeakCount>5</maxWeakCount>
      <stageThreshold>-1.4291315078735352e+00</stageThreshold>
      <weakClassifiers>
        <_>
          <internalNodes>
            0 -1 51 6.8643681704998016e-02</internalNodes>
          <leafValues>
            -8.0590718984603882e-01 3.5911601781845093e-01</leafValues></_>
        <_>
          <internalNodes>
            0 -1 23 3.2946634292602539e-01</internalNodes>
          <leafValues>
            -7.9024243354797363e-01 2.7814847230911255e-01</leafValues></_>
        <_>
          <internalNodes>
            0 -1 43 -1.2164102867245674e-02</internalNodes>
          <leafValues>
            3.2327717542648315e-01 -7.6945894956588745e-01</leafValues></_>
        <_>
          <internalNodes>
            0 -1 15 1.2054739519953728e-02</internalNodes>
          <leafValues>
            -7.8361243009567261e-01 3.6143800616264343e-01</leafValues></_>
        <_>
          <internalNodes>
            0 -1 42 -2.0242724567651749e-03</internalNodes>
          <leafValues>
            6.4103662967681885e-01 -4.4103759527206421e-01</leafValues></_></weakClassifiers></_>
    <!-- stage 10 -->
    <_>
      <maxWeakCount>5</maxWeakCount>
      <stageThreshold>-1.1949392557144165e+00</stageThreshold>
      <weakClassifiers>
        <_>
          <internalNodes>
            0 -1 50 7.5544528663158417e-03</internalNodes>
          <leafValues>
            -7.2319203615188599e-01 8.0000001192092896e-01</leafValues></_>
        <_>
          <internalNodes>
            0 -1 16 1.9803525879979134e-02</internalNodes>
          <leafValues>
            -7.6865601539611816e-01 3.6914142966270447e-01</leafValues></_>
        <_>
          <internalNodes>
            0 -1 57 -7.2994321817532182e-04</internalNodes>
          <leafValues>
            -8.1546723842620850e-01 3.0450230836868286e-01</leafValues></_>
        <_>
          <internalNodes>
            0 -1 19 -1.5443931333720684e-02</internalNodes>
          <leafValues>
            4.8355510830879211e-01 -7.3704117536544800e-01</leafValues></_>
        <_>
          <internalNodes>
            0 -1 38 -7.4703628197312355e-03</internalNodes>
          <leafValues>
            7.5393605232238770e-01 -4.0834975242614746e-01</leafValues></_></weakClassifiers></_>
    <!-- stage 11 -->
    <_>
      <maxWeakCount>6</maxWeakCount>
      <stageThreshold>-1.2916740179061890e+00</stageThreshold>
      <weakClassifiers>
        <_>
          <internalNodes>
            0 -1 26 -9.8387375473976135e-03</internalNodes>
          <leafValues>
            3.2954546809196472e-01 -7.9050278663635254e-01</leafValues></_>
        <_>
          <internalNodes>
            0 -1 28 -6.9812275469303131e-03</internalNodes>
          <leafValues>
            1.8264271318912506e-01 -9.0577971935272217e-01</leafValues></_>
        <_>
          <internalNodes>
            0 -1 4 4.8108138144016266e-03</internalNodes>
          <leafValues>
            -7.0310968160629272e-01 3.6004570126533508e-01</leafValues></_>
        <_>
          <internalNodes>
            0 -1 20 -1.1716149747371674e-02</internalNodes>
          <leafValues>
            5.8491080999374390e-01 -5.1070094108581543e-01</leafValues></_>
        <_>
          <internalNodes>
            0 -1 47 1.6152659431099892e-02</internalNodes>
          <leafValues>
            -7.7165424823760986e-01 3.4044644236564636e-01</leafValues></_>
        <_>
          <internalNodes>
            0 -1 7 -1.0520394425839186e-03</internalNodes>
          <leafValues>
            -8.8079446554183960e-01 3.2534042000770569e-01</leafValues></_></weakClassifiers></_>
    <!-- stage 12 -->
    <_>
      <maxWeakCount>6</maxWeakCount>
      <stageThreshold>-1.3798259496688843e+00</stageThreshold>
      <weakClassifiers>
        <_>
          <internalNodes>
            0 -1 32 8.7499693036079407e-03</internalNodes>
          <leafValues>
            -8.7441128492355347e-01 1.9215686619281769e-01</leafValues></_>
        <_>
          <internalNodes>
            0 -1 12 -1.1894620954990387e-02</internalNodes>
          <leafValues>
            7.3880463838577271e-01 -4.5814716815948486e-01</leafValues></_>
        <_>
          <internalNodes>
            0 -1 37 6.7028015851974487e-02</internalNodes>
          <leafValues>
            -8.7069869041442871e-01 2.7332180738449097e-01</leafValues></_>
        <_>
          <internalNodes>
            0 -1 48 -1.2450309004634619e-03</internalNodes>
          <leafValues>
            3.3287844061851501e-01 -8.5066884756088257e-01</leafValues></_>
        <_>
          <internalNodes>
            0 -1 54 7.3686137795448303e-02</internalNodes>
          <leafValues>
            -8.9468562602996826e-01 1.8973465263843536e-01</leafValues></_>
        <_>
          <internalNodes>
            0 -1 56 7.5181038118898869e-03</internalNodes>
          <leafValues>
            -7.7818226814270020e-01 3.4034493565559387e-01</leafValues></_></weakClassifiers></_>
    <!-- stage 13 -->
    <_>
      <maxWeakCount>6</maxWeakCount>
      <stageThreshold>-1.3512228727340698e+00</stageThreshold>
      <weakClassifiers>
        <_>
          <internalNodes>
            0 -1 49 1.3823658227920532e-03</internalNodes>
          <leafValues>
            -7.4489796161651611e-01 7.0370370149612427e-01</leafValues></_>
        <_>
          <internalNodes>
            0 -1 55 8.2073912024497986e-02</internalNodes>
          <leafValues>
            -5.0257015228271484e-01 6.8452507257461548e-01</leafValues></_>
        <_>
          <internalNodes>
            0 -1 28 -7.0127472281455994e-03</internalNodes>
          <leafValues>
            3.4093394875526428e-01 -8.5846823453903198e-01</leafValues></_>
        <_>
          <internalNodes>
            0 -1 31 -2.8286252170801163e-02</internalNodes>
          <leafValues>
            -9.3968564271926880e-01 3.1663140654563904e-01</leafValues></_>
        <_>
          <internalNodes>
            0 -1 40 -5.4800901561975479e-03</internalNodes>
          <leafValues>
            2.0415702462196350e-01 -9.0385431051254272e-01</leafValues></_>
        <_>
          <internalNodes>
            0 -1 13 1.6346822958439589e-03</internalNodes>
          <leafValues>
            -8.0523777008056641e-01 2.9083985090255737e-01</leafValues></_></weakClassifiers></_></stages>
  <features>
    <_>
      <rects>
        <_>
          0 0 20 30 -1.</_>
        <_>
          0 15 20 15 2.</_></rects>
      <tilted>0</tilted></_>
    <_>
      <rects>
        <_>
          0 2 7 10 -1.</_>
        <_>
          0 7 7 5 2.</_></rects>
      <tilted>0</tilted></_>
    <_>
      <rects>
        <_>
          0 2 24 12 -1.</_>
        <_>
          8 2 8 12 3.</_></rects>
      <tilted>0</tilted></_>
    <_>
      <rects>
        <_>
          0 4 19 10 -1.</_>
        <_>
          0 9 19 5 2.</_></rects>
      <tilted>0</tilted></_>
    <_>
      <rects>
        <_>
          0 6 8 12 -1.</_>
        <_>
          4 6 4 12 2.</_></rects>
      <tilted>0</tilted></_>
    <_>
      <rects>
        <_>
          0 6 24 10 -1.</_>
        <_>
          0 11 24 5 2.</_></rects>
      <tilted>0</tilted></_>
    <_>
      <rects>
        <_>
          0 9 4 6 -1.</_>
        <_>
          0 11 4 2 3.</_></rects>
      <tilted>0</tilted></_>
    <_>
      <rects>
        <_>
          0 10 24 2 -1.</_>
        <_>
          0 10 12 1 2.</_>
        <_>
          12 11 12 1 2.</_></rects>
      <tilted>0</tilted></_>
    <_>
      <rects>
        <_>
          0 12 10 1 -1.</_>
        <_>
          5 12 5 1 2.</_></rects>
      <tilted>0</tilted></_>
    <_>
      <rects>
        <_>
          0 17 9 12 -1.</_>
        <_>
          3 17 3 12 3.</_></rects>
      <tilted>0</tilted></_>
    <_>
      <rects>
        <_>
          0 17 12 13 -1.</_>
        <_>
          4 17 4 13 3.</_></rects>
      <tilted>0</tilted></_>
    <_>
      <rects>
        <_>
          0 19 30 13 -1.</_>
        <_>
          10 19 10 13 3.</_></rects>
      <tilted>0</tilted></_>
    <_>
      <rects>
        <_>
          0 21 19 6 -1.</_>
        <_>
          0 23 19 2 3.</_></rects>
      <tilted>0</tilted></_>
    <_>
      <rects>
        <_>
          0 25 27 6 -1.</_>
        <_>
          0 27 27 2 3.</_></rects>
      <tilted>0</tilted></_>
    <_>
      <rects>
        <_>
          1 8 14 18 -1.</_>
        <_>
          1 17 14 9 2.</_></rects>
      <tilted>0</tilted></_>
    <_>
      <rects>
        <_>
          1 28 27 1 -1.</_>
        <_>
          10 28 9 1 3.</_></rects>
      <tilted>0</tilted></_>
    <_>
      <rects>
        <_>
          1 29 30 1 -1.</_>
        <_>
          11 29 10 1 3.</_></rects>
      <tilted>0</tilted></_>
    <_>
      <rects>
        <_>
          2 0 20 30 -1.</_>
        <_>
          2 15 20 15 2.</_></rects>
      <tilted>0</tilted></_>
    <_>
      <rects>
        <_>
          2 2 24 30 -1.</_>
        <_>
          10 2 8 30 3.</_></rects>
      <tilted>0</tilted></_>
    <_>
      <rects>
        <_>
          2 4 18 12 -1.</_>
        <_>
          2 4 9 6 2.</_>
        <_>
          11 10 9 6 2.</_></rects>
      <tilted>0</tilted></_>
    <_>
      <rects>
        <_>
          2 15 20 4 -1.</_>
        <_>
          2 15 10 2 2.</_>
        <_>
          12 17 10 2 2.</_></rects>
      <tilted>0</tilted></_>
    <_>
      <rects>
        <_>
          3 2 21 8 -1.</_>
        <_>
          10 2 7 8 3.</_></rects>
      <tilted>0</tilted></_>
    <_>
      <rects>
        <_>
          3 3 21 6 -1.</_>
        <_>
          10 3 7 6 3.</_></rects>
      <tilted>0</tilted></_>
    <_>
      <rects>
        <_>
          4 4 15 26 -1.</_>
        <_>
          4 17 15 13 2.</_></rects>
      <tilted>0</tilted></_>
    <_>
      <rects>
        <_>
          4 4 16 26 -1.</_>
        <_>
          4 17 16 13 2.</_></rects>
      <tilted>0</tilted></_>
    <_>
      <rects>
        <_>
          4 8 15 20 -1.</_>
        <_>
          4 18 15 10 2.</_></rects>
      <tilted>0</tilted></_>
    <_>
      <rects>
        <_>
          5 17 15 15 -1.</_>
        <_>
          10 17 5 15 3.</_></rects>
      <tilted>0</tilted></_>
    <_>
      <rects>
        <_>
          5 21 15 5 -1.</_>
        <_>
          10 21 5 5 3.</_></rects>
      <tilted>0</tilted></_>
    <_>
      <rects>
        <_>
          6 3 14 12 -1.</_>
        <_>
          6 9 14 6 2.</_></rects>
      <tilted>0</tilted></_>
    <_>
      <rects>
        <_>
          6 5 26 8 -1.</_>
        <_>
          6 5 13 4 2.</_>
        <_>
          19 9 13 4 2.</_></rects>
      <tilted>0</tilted></_>
    <_>
      <rects>
        <_>
          6 5 19 3 -1.</_>
        <_>
          6 6 19 1 3.</_></rects>
      <tilted>0</tilted></_>
    <_>
      <rects>
        <_>
          6 6 22 10 -1.</_>
        <_>
          6 11 22 5 2.</_></rects>
      <tilted>0</tilted></_>
    <_>
      <rects>
        <_>
          7 0 10 8 -1.</_>
        <_>
          7 0 5 4 2.</_>
        <_>
          12 4 5 4 2.</_></rects>
      <tilted>0</tilted></_>
    <_>
      <rects>
        <_>
          8 0 18 15 -1.</_>
        <_>
          8 5 18 5 3.</_></rects>
      <tilted>0</tilted></_>
    <_>
      <rects>
        <_>
          8 1 17 12 -1.</_>
        <_>
          8 5 17 4 3.</_></rects>
      <tilted>0</tilted></_>
    <_>
      <rects>
        <_>
          8 6 1 8 -1.</_>
        <_>
          8 10 1 4 2.</_></rects>
      <tilted>0</tilted></_>
    <_>
      <rects>
        <_>
          8 10 8 2 -1.</_>
        <_>
          8 11 8 1 2.</_></rects>
      <tilted>0</tilted></_>
    <_>
      <rects>
        <_>
          8 14 10 18 -1.</_>
        <_>
          8 20 10 6 3.</_></rects>
      <tilted>0</tilted></_>
    <_>
      <rects>
        <_>
          9 5 9 12 -1.</_>
        <_>
          12 5 3 12 3.</_></rects>
      <tilted>0</tilted></_>
    <_>
      <rects>
        <_>
          9 5 11 10 -1.</_>
        <_>
          9 10 11 5 2.</_></rects>
      <tilted>0</tilted></_>
    <_>
      <rects>
        <_>
          10 5 9 12 -1.</_>
        <_>
          10 11 9 6 2.</_></rects>
      <tilted>0</tilted></_>
    <_>
      <rects>
        <_>
          10 21 10 5 -1.</_>
        <_>
          15 21 5 5 2.</_></rects>
      <tilted>0</tilted></_>
    <_>
      <rects>
        <_>
          11 2 3 6 -1.</_>
        <_>
          11 4 3 2 3.</_></rects>
      <tilted>0</tilted></_>
    <_>
      <rects>
        <_>
          11 2 14 7 -1.</_>
        <_>
          18 2 7 7 2.</_></rects>
      <tilted>0</tilted></_>
    <_>
      <rects>
        <_>
          11 5 14 10 -1.</_>
        <_>
          18 5 7 10 2.</_></rects>
      <tilted>0</tilted></_>
    <_>
      <rects>
        <_>
          11 6 6 2 -1.</_>
        <_>
          13 6 2 2 3.</_></rects>
      <tilted>0</tilted></_>
    <_>
      <rects>
        <_>
          11 9 12 7 -1.</_>
        <_>
          17 9 6 7 2.</_></rects>
      <tilted>0</tilted></_>
    <_>
      <rects>
        <_>
          12 0 14 15 -1.</_>
        <_>
          12 5 14 5 3.</_></rects>
      <tilted>0</tilted></_>
    <_>
      <rects>
        <_>
          12 2 10 11 -1.</_>
        <_>
          17 2 5 11 2.</_></rects>
      <tilted>0</tilted></_>
    <_>
      <rects>
        <_>
          12 6 3 2 -1.</_>
        <_>
          13 6 1 2 3.</_></rects>
      <tilted>0</tilted></_>
    <_>
      <rects>
        <_>
          12 6 6 2 -1.</_>
        <_>
          14 6 2 2 3.</_></rects>
      <tilted>0</tilted></_>
    <_>
      <rects>
        <_>
          12 12 15 19 -1.</_>
        <_>
          17 12 5 19 3.</_></rects>
      <tilted>0</tilted></_>
    <_>
      <rects>
        <_>
          12 21 15 10 -1.</_>
        <_>
          17 21 5 10 3.</_></rects>
      <tilted>0</tilted></_>
    <_>
      <rects>
        <_>
          12 22 20 9 -1.</_>
        <_>
          22 22 10 9 2.</_></rects>
      <tilted>0</tilted></_>
    <_>
      <rects>
        <_>
          13 0 4 32 -1.</_>
        <_>
          13 16 4 16 2.</_></rects>
      <tilted>0</tilted></_>
    <_>
      <rects>
        <_>
          13 16 15 16 -1.</_>
        <_>
          18 16 5 16 3.</_></rects>
      <tilted>0</tilted></_>
    <_>
      <rects>
        <_>
          14 1 12 15 -1.</_>
        <_>
          14 6 12 5 3.</_></rects>
      <tilted>0</tilted></_>
    <_>
      <rects>
        <_>
          16 8 2 9 -1.</_>
        <_>
          16 11 2 3 3.</_></rects>
      <tilted>0</tilted></_>
    <_>
      <rects>
        <_>
          18 11 8 6 -1.</_>
        <_>
          18 14 8 3 2.</_></rects>
      <tilted>0</tilted></_>
    <_>
      <rects>
        <_>
          19 5 4 12 -1.</_>
        <_>
          19 9 4 4 3.</_></rects>
      <tilted>0</tilted></_></features></cascade>
</opencv_storage>
